encog,BasicNetwork,java,3.2.0,1,63550544299326
[BASIC]
[BASIC:PARAMS]
[BASIC:NETWORK]
beginTraining=0
connectionLimit=0
contextTargetOffset=0,0,0
contextTargetSize=0,0,0
endTraining=2
hasContext=f
inputCount=12
layerCounts=2,4,13
layerFeedCounts=2,3,12
layerContextCount=0,0,0
layerIndex=0,2,6
output=0.319470168663004,0.206705919953424,0.459968131328869,0.47064260193597,0.496973638538458,1,0.091751709536137,0.264297739604484,0.333333333333333,0.5,0.947213595499958,0.341886116991581,0.377525512860841,0.4,0.0262866506794564,0.05,0.0103920555531284,0.00943396226923077,1
outputCount=2
weightIndex=0,8,47
weights=11.2784705880904,-2.77792760514585,-6.07377593231037,-1.61802719769732,0.388506876252937,-1.31960365676251,-2.38482168709314,0.282657536518262,-0.0989904055413273,-0.117370654606818,0.142549418600551,0.264768898000428,1.26119246537963,1.31572238050619,-1.05017533999001,-2.87969785343214,3.30588354367129,-0.119604574321316,-8.71515606910369,-8.88195115081239,-0.302927270122387,-0.0914631503581417,0.135833042773893,0.174127017319637,0.11988008071113,-0.03322591451017,0.142551706822524,-0.0689765588055079,-0.677280610465355,0.0831663548515359,-0.107659875536781,3.11690030718787,2.26899007559564,-0.0339671563166597,0.214002589761609,-0.029449689589343,-0.132062586521201,-0.103702601692941,0.846353583618287,0.562146821978333,0.469799822474621,-0.550666514142071,-0.628521966876145,-0.614408507290908,5.67947266687172,5.2475896918647,-0.940332472009382
biasActivation=0,1,1
[BASIC:ACTIVATION]
"ActivationSigmoid"
"ActivationSigmoid"
"ActivationLinear"
