encog,BasicNetwork,java,3.2.0,1,63550561960116
[BASIC]
[BASIC:PARAMS]
[BASIC:NETWORK]
beginTraining=0
connectionLimit=0
contextTargetOffset=0,0,0
contextTargetSize=0,0,0
endTraining=2
hasContext=f
inputCount=13
layerCounts=2,4,14
layerFeedCounts=2,3,13
layerContextCount=0,0,0
layerIndex=0,2,6
output=0.171281373981694,0.123660277683963,0.677224972450933,0.95853345395687,0.630081566095742,1,0.5,0.971404520791032,0.333333333333333,0.5,0.947213595499958,0.341886116991581,0.377525512860841,0.4,0.00799360511590727,0.05,0.094488188976378,0.012790874967816,0.00596816976923077,1
outputCount=2
weightIndex=0,8,50
weights=-25.6119715878111,8.96789087957865,0.129263499856137,7.09102376733297,-8.12846614400285,2.48428823911891,9.06757373566463,-4.54799990303101,0.209839120619985,0.560634238503185,0.279836832308937,0.104449696972975,1.18991169467915,-0.612603522066094,3.19872304328551,0.582713411006902,-3.40058128325003,0.632492737737168,5.91792994145512,24.8966466184922,19.4945106497752,-3.41073550828004,-0.848056190225219,2.28070328275422,-0.00418336687225698,0.516079653770365,1.38004005837915,-0.0304365113354089,1.89823806788327,-4.63392604642041,-1.99537687351377,1.27492063028559,-0.353952990095701,-2.74775934558326,-3.34588450750727,0.973328612768959,0.388619406400854,0.21006362351186,0.375225978636911,0.27110440718396,0.779355586244121,-0.807983741124738,3.28393159768154,2.05399029433219,-3.65198106867205,1.29001272630838,9.27234290263469,-5.79373737832868,-0.13474676798903,-3.48629296769915
biasActivation=0,1,1
[BASIC:ACTIVATION]
"ActivationSigmoid"
"ActivationSigmoid"
"ActivationLinear"
