encog,BasicNetwork,java,3.2.0,1,63549874069692
[BASIC]
[BASIC:PARAMS]
[BASIC:NETWORK]
beginTraining=0
connectionLimit=0
contextTargetOffset=0,0,0
contextTargetSize=0,0,0
endTraining=2
hasContext=f
inputCount=13
layerCounts=2,4,14
layerFeedCounts=2,3,13
layerContextCount=0,0,0
layerIndex=0,2,6
output=0.0105481999292976,0.240868135643545,0.869276453079285,0.951468945209541,0.135196181325769,1,0.5,0.5,1,0.5,0.947213595499958,0.341886116991581,0.377525512860841,0.4,0.0489208633093525,0.1,0.220472440944882,0.0425648503413084,0.0199916701374429,1
outputCount=2
weightIndex=0,8,50
weights=-18.5751159928566,6.70464183494773,1.14849163250188,5.0711849381941,-6.1835264271726,2.3283532069997,-10.7583253246218,3.46639678364968,-0.774767319614851,0.186426540778302,0.0940438572136768,1.88973610716732,0.33718245125112,-1.39781479720231,3.40547284790273,0.662521151663735,-4.04639571870902,0.857615311474472,7.37913900846272,17.2758513169132,15.7514591365443,-2.80726390578376,0.106349202286397,1.05835030574202,0.884153445252433,0.835605311326553,1.83460932054622,3.19299548157582,0.370985972406196,-5.39555415660542,-0.368678075285391,0.448775551130303,0.711465397133708,-1.8740385126242,-0.23802528485805,0.181081244747802,0.65635767106742,0.0123609635916972,0.0144595079570839,-1.59179005523572,0.220884303045922,1.46117369622149,-2.61770321946073,-2.47085713064212,3.37146312597569,-1.49851069195733,-9.12850733679029,7.5403048458959,-4.58838805507012,1.62739149584193
biasActivation=0,1,1
[BASIC:ACTIVATION]
"ActivationSigmoid"
"ActivationSigmoid"
"ActivationLinear"
